{
    "size": 10,
    "layer_sizes": [
        3,
        1
    ],
    "parametres": [
        {
            "weights": [
                [
                    [
                        0.00522314581290502,
                        0.2580401482905322,
                        -0.07790611948187012
                    ]
                ]
            ],
            "biases": [
                [
                    -0.03914804607920057
                ]
            ]
        },
        {
            "weights": [
                [
                    [
                        0.00522314581290502,
                        0.2580401482905322,
                        -0.07790611948187012
                    ]
                ]
            ],
            "biases": [
                [
                    -0.03914804607920057
                ]
            ]
        },
        {
            "weights": [
                [
                    [
                        0.00522314581290502,
                        0.2580401482905322,
                        -0.07790611948187012
                    ]
                ]
            ],
            "biases": [
                [
                    -0.03914804607920057
                ]
            ]
        },
        {
            "weights": [
                [
                    [
                        0.007817258780631234,
                        0.2591905770516396,
                        -0.07010268925950726
                    ]
                ]
            ],
            "biases": [
                [
                    -0.04560451074736661
                ]
            ]
        },
        {
            "weights": [
                [
                    [
                        0.00169191506933999,
                        0.24406565159668842,
                        -0.07531222103854543
                    ]
                ]
            ],
            "biases": [
                [
                    -0.03873126610714922
                ]
            ]
        },
        {
            "weights": [
                [
                    [
                        0.0008824660221085105,
                        0.24803239150851852,
                        -0.07906555910416344
                    ]
                ]
            ],
            "biases": [
                [
                    -0.03733737781755151
                ]
            ]
        },
        {
            "weights": [
                [
                    [
                        0.005427749579836652,
                        0.25549947277381724,
                        -0.07165069123668476
                    ]
                ]
            ],
            "biases": [
                [
                    -0.042922711419466936
                ]
            ]
        },
        {
            "weights": [
                [
                    [
                        0.0026979392585741073,
                        0.25855620653978517,
                        -0.06362034693018896
                    ]
                ]
            ],
            "biases": [
                [
                    -0.047267630744145556
                ]
            ]
        },
        {
            "weights": [
                [
                    [
                        -0.0005557177937862076,
                        0.25192526922430286,
                        -0.06772045879531718
                    ]
                ]
            ],
            "biases": [
                [
                    -0.04283930848686412
                ]
            ]
        },
        {
            "weights": [
                [
                    [
                        0.006917465917904293,
                        0.25291862277458976,
                        -0.09401731127683777
                    ]
                ]
            ],
            "biases": [
                [
                    -0.04292180106675878
                ]
            ]
        }
    ]
}